version: 100
cost-factor: 1
maxid: 513
xsize: 1

Ｂ
Ｉ
Ｓ

U00:%x[-3,0]
U01:%x[-2,0]
U02:%x[-1,0] 
U03:%x[0,0] 
U04:%x[1,0] 
U05:%x[2,0]
U06:%x[3,0]
U07:%x[-3,0]/%x[-2,0]/%x[-1,0] 
U08:%x[-2,0]/%x[-1,0]/%x[0,0] 
U09:%x[-1,0]/%x[0,0]/%x[1,0] 
U10:%x[0,0]/%x[1,0]/%x[2,0]
U11:%x[1,0]/%x[2,0]/%x[3,0]
U12:%x[-1,0]/%x[0,0] 
U13:%x[0,0]/%x[1,0] 
B

504 B
84 U00:_B-1
42 U00:_B-2
0 U00:_B-3
378 U00:一
336 U00:了
210 U00:今
420 U00:件
252 U00:天
126 U00:小
168 U00:明
294 U00:穿
462 U00:红
45 U01:_B-1
3 U01:_B-2
339 U01:一
297 U01:了
171 U01:今
381 U01:件
213 U01:天
87 U01:小
129 U01:明
255 U01:穿
423 U01:红
465 U01:色
6 U02:_B-1 
300 U02:一 
468 U02:上 
258 U02:了 
132 U02:今 
342 U02:件 
174 U02:天 
48 U02:小 
90 U02:明 
216 U02:穿 
384 U02:红 
426 U02:色 
261 U03:一 
429 U03:上 
219 U03:了 
93 U03:今 
303 U03:件 
135 U03:天 
9 U03:小 
51 U03:明 
177 U03:穿 
345 U03:红 
387 U03:色 
471 U03:衣 
474 U04:_B+1 
222 U04:一 
390 U04:上 
180 U04:了 
54 U04:今 
264 U04:件 
96 U04:天 
12 U04:明 
138 U04:穿 
306 U04:红 
348 U04:色 
432 U04:衣 
435 U05:_B+1
477 U05:_B+2
183 U05:一
351 U05:上
141 U05:了
15 U05:今
225 U05:件
57 U05:天
99 U05:穿
267 U05:红
309 U05:色
393 U05:衣
396 U06:_B+1
438 U06:_B+2
480 U06:_B+3
144 U06:一
312 U06:上
102 U06:了
186 U06:件
18 U06:天
60 U06:穿
228 U06:红
270 U06:色
354 U06:衣
105 U07:_B-1/小/明 
63 U07:_B-2/_B-1/小 
21 U07:_B-3/_B-2/_B-1 
399 U07:一/件/红 
357 U07:了/一/件 
231 U07:今/天/穿 
441 U07:件/红/色 
273 U07:天/穿/了 
147 U07:小/明/今 
189 U07:明/今/天 
315 U07:穿/了/一 
483 U07:红/色/上 
66 U08:_B-1/小/明 
24 U08:_B-2/_B-1/小 
360 U08:一/件/红 
318 U08:了/一/件 
192 U08:今/天/穿 
402 U08:件/红/色 
234 U08:天/穿/了 
108 U08:小/明/今 
150 U08:明/今/天 
276 U08:穿/了/一 
444 U08:红/色/上 
486 U08:色/上/衣 
27 U09:_B-1/小/明 
321 U09:一/件/红 
489 U09:上/衣/_B+1 
279 U09:了/一/件 
153 U09:今/天/穿 
363 U09:件/红/色 
195 U09:天/穿/了 
69 U09:小/明/今 
111 U09:明/今/天 
237 U09:穿/了/一 
405 U09:红/色/上 
447 U09:色/上/衣 
282 U10:一/件/红
450 U10:上/衣/_B+1
240 U10:了/一/件
114 U10:今/天/穿
324 U10:件/红/色
156 U10:天/穿/了
30 U10:小/明/今
72 U10:明/今/天
198 U10:穿/了/一
366 U10:红/色/上
408 U10:色/上/衣
492 U10:衣/_B+1/_B+2
495 U11:_B+1/_B+2/_B+3
243 U11:一/件/红
411 U11:上/衣/_B+1
201 U11:了/一/件
75 U11:今/天/穿
285 U11:件/红/色
117 U11:天/穿/了
33 U11:明/今/天
159 U11:穿/了/一
327 U11:红/色/上
369 U11:色/上/衣
453 U11:衣/_B+1/_B+2
36 U12:_B-1/小 
330 U12:一/件 
498 U12:上/衣 
288 U12:了/一 
162 U12:今/天 
372 U12:件/红 
204 U12:天/穿 
78 U12:小/明 
120 U12:明/今 
246 U12:穿/了 
414 U12:红/色 
456 U12:色/上 
291 U13:一/件 
459 U13:上/衣 
249 U13:了/一 
123 U13:今/天 
333 U13:件/红 
165 U13:天/穿 
39 U13:小/明 
81 U13:明/今 
207 U13:穿/了 
375 U13:红/色 
417 U13:色/上 
501 U13:衣/_B+1 

0.0985575191769710
-0.0493610404633367
-0.0491964787136343
0.0985575191769710
-0.0493610404633367
-0.0491964787136343
0.0985575191769710
-0.0493610404633367
-0.0491964787136343
0.0985575191769710
-0.0493610404633367
-0.0491964787136343
0.0985575191769710
-0.0493610404633367
-0.0491964787136343
0.0985575191769710
-0.0493610404633367
-0.0491964787136343
0.0985575191769710
-0.0493610404633367
-0.0491964787136343
0.0985575191769710
-0.0493610404633367
-0.0491964787136343
0.0985575191769710
-0.0493610404633367
-0.0491964787136343
0.0985575191769710
-0.0493610404633367
-0.0491964787136343
0.0985575191769710
-0.0493610404633367
-0.0491964787136343
0.0985575191769710
-0.0493610404633367
-0.0491964787136343
0.0985575191769710
-0.0493610404633367
-0.0491964787136343
0.0985575191769710
-0.0493610404633367
-0.0491964787136343
-0.0416837227906863
0.0880997028248216
-0.0464159800341337
-0.0416837227906863
0.0880997028248216
-0.0464159800341337
-0.0416837227906863
0.0880997028248216
-0.0464159800341337
-0.0416837227906863
0.0880997028248216
-0.0464159800341337
-0.0416837227906863
0.0880997028248216
-0.0464159800341337
-0.0416837227906863
0.0880997028248216
-0.0464159800341337
-0.0416837227906863
0.0880997028248216
-0.0464159800341337
-0.0416837227906863
0.0880997028248216
-0.0464159800341337
-0.0416837227906863
0.0880997028248216
-0.0464159800341337
-0.0416837227906863
0.0880997028248216
-0.0464159800341337
-0.0416837227906863
0.0880997028248216
-0.0464159800341337
-0.0416837227906863
0.0880997028248216
-0.0464159800341337
-0.0416837227906863
0.0880997028248216
-0.0464159800341337
-0.0416837227906863
0.0880997028248216
-0.0464159800341337
0.0879642752271907
-0.0415656020589035
-0.0463986731682845
0.0879642752271907
-0.0415656020589035
-0.0463986731682845
0.0879642752271907
-0.0415656020589035
-0.0463986731682845
0.0879642752271907
-0.0415656020589035
-0.0463986731682845
0.0879642752271907
-0.0415656020589035
-0.0463986731682845
0.0879642752271907
-0.0415656020589035
-0.0463986731682845
0.0879642752271907
-0.0415656020589035
-0.0463986731682845
0.0879642752271907
-0.0415656020589035
-0.0463986731682845
0.0879642752271907
-0.0415656020589035
-0.0463986731682845
0.0879642752271907
-0.0415656020589035
-0.0463986731682845
0.0879642752271907
-0.0415656020589035
-0.0463986731682845
0.0879642752271907
-0.0415656020589035
-0.0463986731682845
0.0879642752271907
-0.0415656020589035
-0.0463986731682845
0.0879642752271907
-0.0415656020589035
-0.0463986731682845
-0.0453091728692094
0.0969281578171638
-0.0516189849479518
-0.0453091728692094
0.0969281578171638
-0.0516189849479518
-0.0453091728692094
0.0969281578171638
-0.0516189849479518
-0.0453091728692094
0.0969281578171638
-0.0516189849479518
-0.0453091728692094
0.0969281578171638
-0.0516189849479518
-0.0453091728692094
0.0969281578171638
-0.0516189849479518
-0.0453091728692094
0.0969281578171638
-0.0516189849479518
-0.0453091728692094
0.0969281578171638
-0.0516189849479518
-0.0453091728692094
0.0969281578171638
-0.0516189849479518
-0.0453091728692094
0.0969281578171638
-0.0516189849479518
-0.0453091728692094
0.0969281578171638
-0.0516189849479518
-0.0453091728692094
0.0969281578171638
-0.0516189849479518
-0.0453091728692094
0.0969281578171638
-0.0516189849479518
-0.0453091728692094
0.0969281578171638
-0.0516189849479518
-0.0670390099404986
-0.0556797474077489
0.1227187573482512
-0.0670390099404986
-0.0556797474077489
0.1227187573482512
-0.0670390099404986
-0.0556797474077489
0.1227187573482512
-0.0670390099404986
-0.0556797474077489
0.1227187573482512
-0.0670390099404986
-0.0556797474077489
0.1227187573482512
-0.0670390099404986
-0.0556797474077489
0.1227187573482512
-0.0670390099404986
-0.0556797474077489
0.1227187573482512
-0.0670390099404986
-0.0556797474077489
0.1227187573482512
-0.0670390099404986
-0.0556797474077489
0.1227187573482512
-0.0670390099404986
-0.0556797474077489
0.1227187573482512
-0.0670390099404986
-0.0556797474077489
0.1227187573482512
-0.0670390099404986
-0.0556797474077489
0.1227187573482512
-0.0670390099404986
-0.0556797474077489
0.1227187573482512
-0.0670390099404986
-0.0556797474077489
0.1227187573482512
-0.0556796404832625
-0.0670390712451699
0.1227187117284362
-0.0556796404832625
-0.0670390712451699
0.1227187117284362
-0.0556796404832625
-0.0670390712451699
0.1227187117284362
-0.0556796404832625
-0.0670390712451699
0.1227187117284362
-0.0556796404832625
-0.0670390712451699
0.1227187117284362
-0.0556796404832625
-0.0670390712451699
0.1227187117284362
-0.0556796404832625
-0.0670390712451699
0.1227187117284362
-0.0556796404832625
-0.0670390712451699
0.1227187117284362
-0.0556796404832625
-0.0670390712451699
0.1227187117284362
-0.0556796404832625
-0.0670390712451699
0.1227187117284362
-0.0556796404832625
-0.0670390712451699
0.1227187117284362
-0.0556796404832625
-0.0670390712451699
0.1227187117284362
-0.0556796404832625
-0.0670390712451699
0.1227187117284362
-0.0556796404832625
-0.0670390712451699
0.1227187117284362
0.0969261788853729
-0.0453077830913705
-0.0516183957939985
0.0969261788853729
-0.0453077830913705
-0.0516183957939985
0.0969261788853729
-0.0453077830913705
-0.0516183957939985
0.0969261788853729
-0.0453077830913705
-0.0516183957939985
0.0969261788853729
-0.0453077830913705
-0.0516183957939985
0.0969261788853729
-0.0453077830913705
-0.0516183957939985
0.0969261788853729
-0.0453077830913705
-0.0516183957939985
0.0969261788853729
-0.0453077830913705
-0.0516183957939985
0.0969261788853729
-0.0453077830913705
-0.0516183957939985
0.0969261788853729
-0.0453077830913705
-0.0516183957939985
0.0969261788853729
-0.0453077830913705
-0.0516183957939985
0.0969261788853729
-0.0453077830913705
-0.0516183957939985
0.0969261788853729
-0.0453077830913705
-0.0516183957939985
0.0969261788853729
-0.0453077830913705
-0.0516183957939985
-0.0415341295346326
0.0879366057179019
-0.0464024761832682
-0.0415341295346326
0.0879366057179019
-0.0464024761832682
-0.0415341295346326
0.0879366057179019
-0.0464024761832682
-0.0415341295346326
0.0879366057179019
-0.0464024761832682
-0.0415341295346326
0.0879366057179019
-0.0464024761832682
-0.0415341295346326
0.0879366057179019
-0.0464024761832682
-0.0415341295346326
0.0879366057179019
-0.0464024761832682
-0.0415341295346326
0.0879366057179019
-0.0464024761832682
-0.0415341295346326
0.0879366057179019
-0.0464024761832682
-0.0415341295346326
0.0879366057179019
-0.0464024761832682
-0.0415341295346326
0.0879366057179019
-0.0464024761832682
-0.0415341295346326
0.0879366057179019
-0.0464024761832682
-0.0415341295346326
0.0879366057179019
-0.0464024761832682
-0.0415341295346326
0.0879366057179019
-0.0464024761832682
0.0873263204959292
-0.0412155338225090
-0.0461107866734150
0.0873263204959292
-0.0412155338225090
-0.0461107866734150
0.0873263204959292
-0.0412155338225090
-0.0461107866734150
0.0873263204959292
-0.0412155338225090
-0.0461107866734150
0.0873263204959292
-0.0412155338225090
-0.0461107866734150
0.0873263204959292
-0.0412155338225090
-0.0461107866734150
0.0873263204959292
-0.0412155338225090
-0.0461107866734150
0.0873263204959292
-0.0412155338225090
-0.0461107866734150
0.0873263204959292
-0.0412155338225090
-0.0461107866734150
0.0873263204959292
-0.0412155338225090
-0.0461107866734150
0.0873263204959292
-0.0412155338225090
-0.0461107866734150
0.0873263204959292
-0.0412155338225090
-0.0461107866734150
0.0873263204959292
-0.0412155338225090
-0.0461107866734150
0.0873263204959292
-0.0412155338225090
-0.0461107866734150
-0.0412234599877392
0.0873326507906223
-0.0461091908028805
-0.0412234599877392
0.0873326507906223
-0.0461091908028805
-0.0412234599877392
0.0873326507906223
-0.0461091908028805
-0.0412234599877392
0.0873326507906223
-0.0461091908028805
-0.0412234599877392
0.0873326507906223
-0.0461091908028805
-0.0412234599877392
0.0873326507906223
-0.0461091908028805
-0.0412234599877392
0.0873326507906223
-0.0461091908028805
-0.0412234599877392
0.0873326507906223
-0.0461091908028805
-0.0412234599877392
0.0873326507906223
-0.0461091908028805
-0.0412234599877392
0.0873326507906223
-0.0461091908028805
-0.0412234599877392
0.0873326507906223
-0.0461091908028805
-0.0412234599877392
0.0873326507906223
-0.0461091908028805
-0.0412234599877392
0.0873326507906223
-0.0461091908028805
-0.0412234599877392
0.0873326507906223
-0.0461091908028805
0.0880788704030316
-0.0416604883428409
-0.0464183820601885
0.0880788704030316
-0.0416604883428409
-0.0464183820601885
0.0880788704030316
-0.0416604883428409
-0.0464183820601885
0.0880788704030316
-0.0416604883428409
-0.0464183820601885
0.0880788704030316
-0.0416604883428409
-0.0464183820601885
0.0880788704030316
-0.0416604883428409
-0.0464183820601885
0.0880788704030316
-0.0416604883428409
-0.0464183820601885
0.0880788704030316
-0.0416604883428409
-0.0464183820601885
0.0880788704030316
-0.0416604883428409
-0.0464183820601885
0.0880788704030316
-0.0416604883428409
-0.0464183820601885
0.0880788704030316
-0.0416604883428409
-0.0464183820601885
0.0880788704030316
-0.0416604883428409
-0.0464183820601885
0.0880788704030316
-0.0416604883428409
-0.0464183820601885
0.0880788704030316
-0.0416604883428409
-0.0464183820601885
-0.0493599425295913
0.0985559627081875
-0.0491960201785986
-0.0493599425295913
0.0985559627081875
-0.0491960201785986
-0.0493599425295913
0.0985559627081875
-0.0491960201785986
-0.0493599425295913
0.0985559627081875
-0.0491960201785986
-0.0493599425295913
0.0985559627081875
-0.0491960201785986
-0.0493599425295913
0.0985559627081875
-0.0491960201785986
-0.0493599425295913
0.0985559627081875
-0.0491960201785986
-0.0493599425295913
0.0985559627081875
-0.0491960201785986
-0.0493599425295913
0.0985559627081875
-0.0491960201785986
-0.0493599425295913
0.0985559627081875
-0.0491960201785986
-0.0493599425295913
0.0985559627081875
-0.0491960201785986
-0.0493599425295913
0.0985559627081875
-0.0491960201785986
-0.0493599425295913
0.0985559627081875
-0.0491960201785986
-0.0493599425295913
0.0985559627081875
-0.0491960201785986
-0.3078546038909614
0.7514566368344197
-0.2772180043609965
0.3213695485845297
-0.3078544933920927
0.0049527955261966
0.0049516221823326
-0.2772172895521688
0.0874137880687676
